// GENERATED by admin/generate-weights.mjs -- do not hand-edit.
// Regenerate with: npm run generate-weights
export default {
  "W1": [
    [
      1.0909247398376465,
      -0.7624167203903198,
      0.08674470335245132,
      -0.10454978793859482
    ],
    [
      -0.2151021957397461,
      -0.2154804915189743,
      0.5604594945907593,
      0.38639968633651733
    ],
    [
      -0.008580677211284637,
      -0.20763136446475983,
      -0.4220089018344879,
      0.8584730625152588
    ],
    [
      0.09201071411371231,
      -0.17716385424137115,
      0.026040073484182358,
      -0.011964816600084305
    ]
  ],
  "b1": [
    0.7616087198257446,
    0.2160555124282837,
    0.4204815924167633,
    -0.16990076005458832
  ],
  "W2": [
    [
      0.9330939650535583,
      -0.23372654616832733,
      -0.14129802584648132,
      0.08527842909097672
    ],
    [
      0.023997314274311066,
      0.6643158197402954,
      -0.5272285342216492,
      0.06519409269094467
    ],
    [
      -0.1531001776456833,
      0.3425178527832031,
      0.7821478843688965,
      0.16897167265415192
    ],
    [
      -1.24151611328125,
      -0.07391218841075897,
      -0.4375137388706207,
      -0.09862131625413895
    ]
  ],
  "b2": [
    -0.6729167699813843,
    0.26228567957878113,
    -0.11583055555820465,
    1.0549750328063965
  ]
};
